booster[0]:
0:[f25<1.06649995] yes=1,no=2,missing=1
	1:[f25<0.661499977] yes=3,no=4,missing=3
		3:[f9<1.13750005] yes=7,no=8,missing=7
			7:[f13<1.29500008] yes=15,no=16,missing=15
				15:[f27<0.855499983] yes=29,no=30,missing=29
					29:leaf=-0.0276621785
					30:leaf=-0.0791666731
				16:[f21<0.859499991] yes=31,no=32,missing=31
					31:leaf=-0.0521739125
					32:leaf=0.084536083
			8:[f27<0.83949995] yes=17,no=18,missing=17
				17:[f10<-1.93400002] yes=33,no=34,missing=33
					33:leaf=-0.111111119
					34:leaf=0.0992805809
				18:[f15<0.647500038] yes=35,no=36,missing=35
					35:leaf=0.0317757018
					36:leaf=-0.0745098069
		4:[f26<0.776499987] yes=9,no=10,missing=9
			9:[f5<0.814999998] yes=19,no=20,missing=19
				19:[f14<1.22899997] yes=37,no=38,missing=37
					37:leaf=-0.088888891
					38:leaf=0.0400000028
				20:[f6<-0.54550004] yes=39,no=40,missing=39
					39:leaf=-0.0212765969
					40:leaf=0.0905982926
			10:[f27<0.904500008] yes=21,no=22,missing=21
				21:[f26<0.86650002] yes=41,no=42,missing=41
					41:leaf=0.0732049048
					42:leaf=0.146023244
				22:[f22<1.04949999] yes=43,no=44,missing=43
					43:leaf=0.00653188163
					44:leaf=0.0704424828
	2:[f25<1.56450009] yes=5,no=6,missing=5
		5:[f22<1.02649999] yes=11,no=12,missing=11
			11:[f27<1.0309999] yes=23,no=24,missing=23
				23:[f5<0.898999989] yes=45,no=46,missing=45
					45:leaf=-0.0765432119
					46:leaf=0.0127388537
				24:[f24<1.301] yes=47,no=48,missing=47
					47:leaf=-0.159689933
					48:leaf=-0.0600000024
			12:[f9<1.25250006] yes=25,no=26,missing=25
				25:[f21<1.44599998] yes=49,no=50,missing=49
					49:leaf=-0.0210045669
					50:leaf=0.0620689653
				26:[f11<-1.09500003] yes=51,no=52,missing=51
					51:leaf=-0.0256410278
					52:leaf=0.100952387
		6:[f3<1.83500004] yes=13,no=14,missing=13
			13:[f24<1.24550009] yes=27,no=28,missing=27
				27:[f27<0.851500034] yes=53,no=54,missing=53
					53:leaf=-0.0187500007
					54:leaf=-0.126829267
				28:[f17<1.46249998] yes=55,no=56,missing=55
					55:leaf=-0.0835443065
					56:leaf=0.0666666701
			14:leaf=-0.189041093
booster[1]:
0:[f25<1.23049998] yes=1,no=2,missing=1
	1:[f26<0.809499979] yes=3,no=4,missing=3
		3:[f5<0.821500003] yes=7,no=8,missing=7
			7:[f24<0.718500018] yes=15,no=16,missing=15
				15:[f26<0.727499962] yes=31,no=32,missing=31
					31:leaf=-0.0332262069
					32:leaf=0.0428895243
				16:[f26<0.733500004] yes=33,no=34,missing=33
					33:leaf=-0.0937509835
					34:leaf=-0.0325215645
			8:[f27<0.807500005] yes=17,no=18,missing=17
				17:[f5<1.33800006] yes=35,no=36,missing=35
					35:leaf=0.0295128711
					36:leaf=0.112329759
				18:[f21<0.973500013] yes=37,no=38,missing=37
					37:leaf=-0.113643982
					38:leaf=-0.00178244151
		4:[f27<0.903499961] yes=9,no=10,missing=9
			9:[f5<0.880499959] yes=19,no=20,missing=19
				19:[f25<0.984500051] yes=39,no=40,missing=39
					39:leaf=0.0782000124
					40:leaf=-0.0113657853
				20:[f25<0.68900001] yes=41,no=42,missing=41
					41:leaf=0.0690769851
					42:leaf=0.138903186
			10:[f22<1.04949999] yes=21,no=22,missing=21
				21:[f24<1.01950002] yes=43,no=44,missing=43
					43:leaf=-0.101767458
					44:leaf=0.0227327924
				22:[f25<0.472499996] yes=45,no=46,missing=45
					45:leaf=-0.0470480062
					46:leaf=0.0526466444
	2:[f25<1.88150001] yes=5,no=6,missing=5
		5:[f22<1.04449999] yes=11,no=12,missing=11
			11:[f27<0.896499991] yes=23,no=24,missing=23
				23:[f21<1.09450006] yes=47,no=48,missing=47
					47:leaf=-0.0391450338
					48:leaf=0.0994753838
				24:[f24<1.10350001] yes=49,no=50,missing=49
					49:leaf=-0.139298081
					50:leaf=-0.0499947071
			12:[f24<1.33449996] yes=25,no=26,missing=25
				25:[f27<1.12750006] yes=51,no=52,missing=51
					51:leaf=0.0134840133
					52:leaf=-0.0801185295
				26:[f9<1.30049992] yes=53,no=54,missing=53
					53:leaf=0.00268774712
					54:leaf=0.116628408
		6:[f24<1.255] yes=13,no=14,missing=13
			13:[f14<-2.14849997] yes=27,no=28,missing=27
				27:leaf=0.00653362786
				28:[f7<-1.53349996] yes=55,no=56,missing=55
					55:leaf=-0.0500277579
					56:leaf=-0.150334656
			14:[f17<1.45499992] yes=29,no=30,missing=29
				29:[f6<1.22049999] yes=57,no=58,missing=57
					57:leaf=-0.121675096
					58:leaf=0.0389449634
				30:[f3<1.80800009] yes=59,no=60,missing=59
					59:leaf=0.0647715256
					60:leaf=-0.121487297
booster[2]:
0:[f25<1.06649995] yes=1,no=2,missing=1
	1:[f25<0.621500015] yes=3,no=4,missing=3
		3:[f5<1.33899999] yes=7,no=8,missing=7
			7:[f27<0.844500005] yes=15,no=16,missing=15
				15:[f13<0.940500021] yes=29,no=30,missing=29
					29:leaf=-0.0352727361
					30:leaf=0.0362110995
				16:[f22<1.1170001] yes=31,no=32,missing=31
					31:leaf=-0.0920121893
					32:leaf=-0.00720328977
			8:[f27<0.926499963] yes=17,no=18,missing=17
				17:[f10<-1.71500003] yes=33,no=34,missing=33
					33:leaf=-0.0536683314
					34:leaf=0.12434303
				18:[f17<0.677999973] yes=35,no=36,missing=35
					35:leaf=-0.0905658752
					36:leaf=0.0290505569
		4:[f26<0.7755] yes=9,no=10,missing=9
			9:[f5<0.814999998] yes=19,no=20,missing=19
				19:[f24<0.588500023] yes=37,no=38,missing=37
					37:leaf=0.0307486951
					38:leaf=-0.0759315342
				20:[f27<0.744000018] yes=39,no=40,missing=39
					39:leaf=0.0807596743
					40:leaf=-0.0350476764
			10:[f27<0.904500008] yes=21,no=22,missing=21
				21:[f26<0.86650002] yes=41,no=42,missing=41
					41:leaf=0.0621669181
					42:leaf=0.120064653
				22:[f24<1.0250001] yes=43,no=44,missing=43
					43:leaf=-0.00562621653
					44:leaf=0.0531580225
	2:[f25<1.56450009] yes=5,no=6,missing=5
		5:[f22<1.02649999] yes=11,no=12,missing=11
			11:[f27<1.0309999] yes=23,no=24,missing=23
				23:[f5<0.898999989] yes=45,no=46,missing=45
					45:leaf=-0.0657819957
					46:leaf=0.0120225633
				24:[f24<1.51950002] yes=47,no=48,missing=47
					47:leaf=-0.128120586
					48:leaf=-0.0337780677
			12:[f7<-1.59450006] yes=25,no=26,missing=25
				25:[f17<0.615499973] yes=49,no=50,missing=49
					49:leaf=0.0184119325
					50:leaf=-0.134465471
				26:[f26<0.835999966] yes=51,no=52,missing=51
					51:leaf=-0.0983512849
					52:leaf=0.0319994278
		6:[f3<1.83500004] yes=13,no=14,missing=13
			13:[f24<1.50749993] yes=27,no=28,missing=27
				27:[f22<0.787500024] yes=53,no=54,missing=53
					53:leaf=0.0168553442
					54:leaf=-0.0943556055
				28:[f17<1.54550004] yes=55,no=56,missing=55
					55:leaf=-0.0509645417
					56:leaf=0.0833055601
			14:leaf=-0.164073661
booster[3]:
0:[f25<1.28349996] yes=1,no=2,missing=1
	1:[f26<0.809499979] yes=3,no=4,missing=3
		3:[f5<1.35049999] yes=7,no=8,missing=7
			7:[f24<0.734500051] yes=15,no=16,missing=15
				15:[f22<1.07150006] yes=31,no=32,missing=31
					31:leaf=-0.0141922487
					32:leaf=0.0607785396
				16:[f13<1.36899996] yes=33,no=34,missing=33
					33:leaf=-0.0547187589
					34:leaf=0.0495427884
			8:[f27<1.0115] yes=17,no=18,missing=17
				17:[f4<-1.5769999] yes=35,no=36,missing=35
					35:leaf=-0.0789102241
					36:leaf=0.110459268
				18:leaf=-0.117779411
		4:[f27<0.903499961] yes=9,no=10,missing=9
			9:[f5<0.880499959] yes=19,no=20,missing=19
				19:[f25<0.984500051] yes=37,no=38,missing=37
					37:leaf=0.0639856458
					38:leaf=-0.0182149895
				20:[f25<0.68900001] yes=39,no=40,missing=39
					39:leaf=0.0590518303
					40:leaf=0.118058555
			10:[f22<1.04949999] yes=21,no=22,missing=21
				21:[f24<1.07599998] yes=41,no=42,missing=41
					41:leaf=-0.0852242336
					42:leaf=0.0225368235
				22:[f1<1.78049994] yes=43,no=44,missing=43
					43:leaf=0.0431903973
					44:leaf=-0.0996438935
	2:[f27<0.895500004] yes=5,no=6,missing=5
		5:[f21<1.09450006] yes=11,no=12,missing=11
			11:[f21<0.613499999] yes=23,no=24,missing=23
				23:[f13<0.534500003] yes=45,no=46,missing=45
					45:leaf=-0.0431581475
					46:leaf=0.108162992
				24:[f5<1.4885] yes=47,no=48,missing=47
					47:leaf=-0.056149222
					48:leaf=0.136894211
			12:[f26<0.99849999] yes=25,no=26,missing=25
				25:[f15<0.664999962] yes=49,no=50,missing=49
					49:leaf=0.161359653
					50:leaf=0.0366885737
				26:[f27<0.864499986] yes=51,no=52,missing=51
					51:leaf=-0.109094024
					52:leaf=0.0173261855
		6:[f24<1.24550009] yes=13,no=14,missing=13
			13:[f22<1.19400001] yes=27,no=28,missing=27
				27:[f15<-1.68099999] yes=53,no=54,missing=53
					53:leaf=0.0355342031
					54:leaf=-0.120249443
				28:[f26<1.33150005] yes=55,no=56,missing=55
					55:leaf=0.0216209199
					56:leaf=-0.0872013196
			14:[f3<1.82249999] yes=29,no=30,missing=29
				29:[f17<2.1500001] yes=57,no=58,missing=57
					57:leaf=-0.0215013456
					58:leaf=0.114630006
				30:[f25<1.44949996] yes=59,no=60,missing=59
					59:leaf=-0.033483278
					60:leaf=-0.152603567
booster[4]:
0:[f25<1.06550002] yes=1,no=2,missing=1
	1:[f25<0.668500006] yes=3,no=4,missing=3
		3:[f5<1.33899999] yes=7,no=8,missing=7
			7:[f22<0.801999986] yes=15,no=16,missing=15
				15:[f21<0.821500003] yes=31,no=32,missing=31
					31:leaf=-0.0281471964
					32:leaf=0.04092573
				16:[f22<1.06049991] yes=33,no=34,missing=33
					33:leaf=-0.0507888012
					34:leaf=0.00686324388
			8:[f27<0.985000014] yes=17,no=18,missing=17
				17:[f10<-1.61899996] yes=35,no=36,missing=35
					35:leaf=-0.0469479039
					36:leaf=0.107127346
				18:[f13<0.934499979] yes=37,no=38,missing=37
					37:leaf=-0.0675680637
					38:leaf=0.0496300086
		4:[f26<0.7755] yes=9,no=10,missing=9
			9:[f5<0.814999998] yes=19,no=20,missing=19
				19:[f14<1.22899997] yes=39,no=40,missing=39
					39:leaf=-0.0658888891
					40:leaf=0.0545163415
				20:[f15<0.171499997] yes=41,no=42,missing=41
					41:leaf=0.0914722681
					42:leaf=-0.000977483112
			10:[f27<0.904500008] yes=21,no=22,missing=21
				21:[f26<0.86650002] yes=43,no=44,missing=43
					43:leaf=0.050205756
					44:leaf=0.107789516
				22:[f3<1.90849996] yes=45,no=46,missing=45
					45:leaf=0.0373628996
					46:leaf=-0.0429484434
	2:[f25<1.88150001] yes=5,no=6,missing=5
		5:[f22<1.0374999] yes=11,no=12,missing=11
			11:[f22<0.779999971] yes=23,no=24,missing=23
				23:[f13<0.607499957] yes=47,no=48,missing=47
					47:leaf=-0.0485050678
					48:leaf=0.0577384531
				24:[f27<1.00250006] yes=49,no=50,missing=49
					49:leaf=-0.0373915546
					50:leaf=-0.101970516
			12:[f3<1.77049994] yes=25,no=26,missing=25
				25:[f9<1.13899994] yes=51,no=52,missing=51
					51:leaf=-0.00621747365
					52:leaf=0.0421965085
				26:[f25<1.09650004] yes=53,no=54,missing=53
					53:leaf=0.0702272505
					54:leaf=-0.0963332206
		6:[f10<1.87899995] yes=13,no=14,missing=13
			13:[f24<1.35649991] yes=27,no=28,missing=27
				27:[f25<2.06500006] yes=55,no=56,missing=55
					55:leaf=-0.0767169222
					56:leaf=-0.134065971
				28:[f6<-1.08949995] yes=57,no=58,missing=57
					57:leaf=0.0530899428
					58:leaf=-0.0800633952
			14:[f17<1.70449996] yes=29,no=30,missing=29
				29:leaf=-0.0567698143
				30:leaf=0.11821609
booster[5]:
0:[f25<0.987499952] yes=1,no=2,missing=1
	1:[f25<0.676499963] yes=3,no=4,missing=3
		3:[f9<1.04550004] yes=7,no=8,missing=7
			7:[f27<0.852499962] yes=15,no=16,missing=15
				15:[f26<0.732499957] yes=29,no=30,missing=29
					29:leaf=-0.0393186063
					30:leaf=0.0194788259
				16:[f21<1.31449997] yes=31,no=32,missing=31
					31:leaf=-0.0714292228
					32:leaf=0.0181546211
			8:[f27<0.83949995] yes=17,no=18,missing=17
				17:[f9<1.52649999] yes=33,no=34,missing=33
					33:leaf=0.0400257371
					34:leaf=0.137078643
				18:[f18<-0.113499999] yes=35,no=36,missing=35
					35:leaf=-0.0512232594
					36:leaf=0.0272109993
		4:[f26<0.774500012] yes=9,no=10,missing=9
			9:[f5<0.814999998] yes=19,no=20,missing=19
				19:[f14<0.756000042] yes=37,no=38,missing=37
					37:leaf=-0.0686384663
					38:leaf=0.0248447116
				20:[f6<-1.25449991] yes=39,no=40,missing=39
					39:leaf=-0.113552406
					40:leaf=0.064260751
			10:[f27<1.01049995] yes=21,no=22,missing=21
				21:[f5<0.8125] yes=41,no=42,missing=41
					41:leaf=0.0558639765
					42:leaf=0.104038678
				22:[f3<2.1164999] yes=43,no=44,missing=43
					43:leaf=0.0330855623
					44:leaf=-0.0858441815
	2:[f25<1.56450009] yes=5,no=6,missing=5
		5:[f5<1.18950009] yes=11,no=12,missing=11
			11:[f22<1.03550005] yes=23,no=24,missing=23
				23:[f5<0.814499974] yes=45,no=46,missing=45
					45:leaf=-0.0646573976
					46:leaf=-0.0209097899
				24:[f4<0.630499959] yes=47,no=48,missing=47
					47:leaf=0.0220021717
					48:leaf=-0.039880231
			12:[f27<0.936499953] yes=25,no=26,missing=25
				25:[f17<2.1954999] yes=49,no=50,missing=49
					49:leaf=0.0957914516
					50:leaf=-0.0503514111
				26:[f24<0.959499955] yes=51,no=52,missing=51
					51:leaf=-0.105181493
					52:leaf=0.0340557471
		6:[f3<1.83500004] yes=13,no=14,missing=13
			13:[f26<2.22099996] yes=27,no=28,missing=27
				27:[f26<0.989500046] yes=53,no=54,missing=53
					53:leaf=0.00859331246
					54:leaf=-0.0715491176
				28:[f25<3.93849993] yes=55,no=56,missing=55
					55:leaf=0.0623719804
					56:leaf=-0.105770484
			14:leaf=-0.141069531
booster[6]:
0:[f25<1.19449997] yes=1,no=2,missing=1
	1:[f25<0.588500023] yes=3,no=4,missing=3
		3:[f13<0.940500021] yes=7,no=8,missing=7
			7:[f0<0.904999971] yes=15,no=16,missing=15
				15:[f5<1.02349997] yes=31,no=32,missing=31
					31:leaf=-0.0778015703
					32:leaf=0.0044353148
				16:[f9<1.00849998] yes=33,no=34,missing=33
					33:leaf=-0.0307224821
					34:leaf=0.046032127
			8:[f27<0.912500024] yes=17,no=18,missing=17
				17:[f21<0.848500013] yes=35,no=36,missing=35
					35:leaf=-0.0370920263
					36:leaf=0.0594255589
				18:[f5<1.57700002] yes=37,no=38,missing=37
					37:leaf=-0.0555406623
					38:leaf=0.0673913658
		4:[f5<0.882500052] yes=9,no=10,missing=9
			9:[f26<0.766000032] yes=19,no=20,missing=19
				19:[f22<1.07299995] yes=39,no=40,missing=39
					39:leaf=-0.0490858071
					40:leaf=0.0694885775
				20:[f25<0.965499997] yes=41,no=42,missing=41
					41:leaf=0.0422485881
					42:leaf=-0.0276098438
			10:[f27<0.903499961] yes=21,no=22,missing=21
				21:[f25<1.0115] yes=43,no=44,missing=43
					43:leaf=0.0953170657
					44:leaf=0.033245746
				22:[f0<1.75549996] yes=45,no=46,missing=45
					45:leaf=0.0459568687
					46:leaf=-0.0599640571
	2:[f3<1.84399998] yes=5,no=6,missing=5
		5:[f24<0.965999961] yes=11,no=12,missing=11
			11:[f27<0.893999994] yes=23,no=24,missing=23
				23:[f21<1.03849995] yes=47,no=48,missing=47
					47:leaf=-0.0361167751
					48:leaf=0.0643998086
				24:[f22<1.09800005] yes=49,no=50,missing=49
					49:leaf=-0.1057797
					50:leaf=-0.0417855904
			12:[f22<0.682999969] yes=25,no=26,missing=25
				25:[f13<0.771999955] yes=51,no=52,missing=51
					51:leaf=0.0284337755
					52:leaf=0.14878203
				26:[f25<1.48150003] yes=53,no=54,missing=53
					53:leaf=0.0108681647
					54:leaf=-0.0394214168
		6:[f22<0.802999973] yes=13,no=14,missing=13
			13:[f10<0.223499998] yes=27,no=28,missing=27
				27:leaf=0.0637394115
				28:leaf=-0.0847561508
			14:[f17<0.391000003] yes=29,no=30,missing=29
				29:leaf=-0.0340596698
				30:[f15<-1.62849998] yes=55,no=56,missing=55
					55:leaf=-0.046322681
					56:leaf=-0.139099732
booster[7]:
0:[f25<0.987499952] yes=1,no=2,missing=1
	1:[f25<0.668500006] yes=3,no=4,missing=3
		3:[f5<1.33899999] yes=7,no=8,missing=7
			7:[f24<0.737499952] yes=15,no=16,missing=15
				15:[f22<0.684499979] yes=31,no=32,missing=31
					31:leaf=0.0955621228
					32:leaf=-0.00433663232
				16:[f13<1.39400005] yes=33,no=34,missing=33
					33:leaf=-0.039796181
					34:leaf=0.0280845501
			8:[f27<1.03699994] yes=17,no=18,missing=17
				17:[f10<-1.61899996] yes=35,no=36,missing=35
					35:leaf=-0.044428952
					36:leaf=0.0890975893
				18:[f13<0.970000029] yes=37,no=38,missing=37
					37:leaf=-0.0720390007
					38:leaf=0.0554064885
		4:[f26<0.7755] yes=9,no=10,missing=9
			9:[f5<0.814999998] yes=19,no=20,missing=19
				19:[f24<0.587499976] yes=39,no=40,missing=39
					39:leaf=0.0623239987
					40:leaf=-0.0474044867
				20:[f15<0.449999988] yes=41,no=42,missing=41
					41:leaf=0.0739840791
					42:leaf=-0.0185971856
			10:[f27<0.85650003] yes=21,no=22,missing=21
				21:[f26<0.857499957] yes=43,no=44,missing=43
					43:leaf=0.0501648188
					44:leaf=0.102642298
				22:[f0<1.6954999] yes=45,no=46,missing=45
					45:leaf=0.0415291488
					46:leaf=-0.0295837205
	2:[f25<1.88150001] yes=5,no=6,missing=5
		5:[f22<1.03850007] yes=11,no=12,missing=11
			11:[f22<0.871500015] yes=23,no=24,missing=23
				23:[f24<1.08050001] yes=47,no=48,missing=47
					47:leaf=-0.0287777092
					48:leaf=0.0352199338
				24:[f21<0.723500013] yes=49,no=50,missing=49
					49:leaf=0.0244362727
					50:leaf=-0.0650269017
			12:[f26<0.836500049] yes=25,no=26,missing=25
				25:[f14<-0.50999999] yes=51,no=52,missing=51
					51:leaf=0.0454552546
					52:leaf=-0.135903463
				26:[f27<0.902500033] yes=53,no=54,missing=53
					53:leaf=0.0638140738
					54:leaf=0.00420296751
		6:[f10<1.01950002] yes=13,no=14,missing=13
			13:[f17<2.45550013] yes=27,no=28,missing=27
				27:[f22<1.17199993] yes=55,no=56,missing=55
					55:leaf=-0.105822816
					56:leaf=-0.05456407
				28:leaf=0.0425723903
			14:[f24<0.884000003] yes=29,no=30,missing=29
				29:[f24<0.7755] yes=57,no=58,missing=57
					57:leaf=-0.0293719079
					58:leaf=-0.111249112
				30:[f3<0.590499997] yes=59,no=60,missing=59
					59:leaf=0.117235743
					60:leaf=-0.0209489577
booster[8]:
0:[f25<1.28349996] yes=1,no=2,missing=1
	1:[f25<0.588500023] yes=3,no=4,missing=3
		3:[f13<0.940500021] yes=7,no=8,missing=7
			7:[f17<1.50699997] yes=15,no=16,missing=15
				15:[f22<0.726499975] yes=29,no=30,missing=29
					29:leaf=0.020942511
					30:leaf=-0.0468751304
				16:[f19<1.12800002] yes=31,no=32,missing=31
					31:leaf=0.0984008163
					32:leaf=-0.0362198427
			8:[f27<0.912500024] yes=17,no=18,missing=17
				17:[f21<0.848500013] yes=33,no=34,missing=33
					33:leaf=-0.0328238867
					34:leaf=0.0537618063
				18:[f24<0.886500001] yes=35,no=36,missing=35
					35:leaf=-0.101903908
					36:leaf=-0.00267420523
		4:[f5<0.882500052] yes=9,no=10,missing=9
			9:[f25<0.965499997] yes=19,no=20,missing=19
				19:[f26<0.766000032] yes=37,no=38,missing=37
					37:leaf=-0.027559001
					38:leaf=0.0340545513
				20:[f26<0.887500048] yes=39,no=40,missing=39
					39:leaf=-0.0784274489
					40:leaf=-0.000757082424
			10:[f27<1.01049995] yes=21,no=22,missing=21
				21:[f25<0.986500025] yes=41,no=42,missing=41
					41:leaf=0.0801013559
					42:leaf=0.0315618105
				22:[f0<1.73950005] yes=43,no=44,missing=43
					43:leaf=0.0273847282
					44:leaf=-0.0741974413
	2:[f3<1.84399998] yes=5,no=6,missing=5
		5:[f24<1.24550009] yes=11,no=12,missing=11
			11:[f27<0.896499991] yes=23,no=24,missing=23
				23:[f0<1.05949998] yes=45,no=46,missing=45
					45:leaf=0.00993845612
					46:leaf=-0.0929056406
				24:[f15<-1.60500002] yes=47,no=48,missing=47
					47:leaf=0.0489100926
					48:leaf=-0.0778176263
			12:[f13<2.25650001] yes=25,no=26,missing=25
				25:[f11<-0.952000022] yes=49,no=50,missing=49
					49:leaf=0.0510822125
					50:leaf=-0.0284454916
				26:[f26<2.63500023] yes=51,no=52,missing=51
					51:leaf=0.145905927
					52:leaf=0.00312031317
		6:[f22<0.766000032] yes=13,no=14,missing=13
			13:leaf=0.0310701318
			14:[f2<-1.51849997] yes=27,no=28,missing=27
				27:leaf=-0.0276970994
				28:[f13<0.534000039] yes=53,no=54,missing=53
					53:leaf=-0.0265836008
					54:leaf=-0.132675216
booster[9]:
0:[f25<1.28349996] yes=1,no=2,missing=1
	1:[f26<0.85650003] yes=3,no=4,missing=3
		3:[f27<0.83949995] yes=7,no=8,missing=7
			7:[f5<0.771499991] yes=15,no=16,missing=15
				15:[f0<0.537500024] yes=31,no=32,missing=31
					31:leaf=-0.0654948279
					32:leaf=-0.00984696578
				16:[f25<0.945500016] yes=33,no=34,missing=33
					33:leaf=0.0410934836
					34:leaf=-0.0384914391
			8:[f21<0.963500023] yes=17,no=18,missing=17
				17:[f0<0.587000012] yes=35,no=36,missing=35
					35:leaf=-0.00944980141
					36:leaf=-0.112816751
				18:[f9<0.988499999] yes=37,no=38,missing=37
					37:leaf=0.0281737298
					38:leaf=-0.0830693245
		4:[f27<0.903499961] yes=9,no=10,missing=9
			9:[f25<0.688500047] yes=19,no=20,missing=19
				19:[f13<0.99150002] yes=39,no=40,missing=39
					39:leaf=-0.00546304276
					40:leaf=0.0869488642
				20:[f25<1.09150004] yes=41,no=42,missing=41
					41:leaf=0.0832327828
					42:leaf=0.0122101037
			10:[f24<1.0250001] yes=21,no=22,missing=21
				21:[f22<0.990499973] yes=43,no=44,missing=43
					43:leaf=-0.0904550627
					44:leaf=0.0165092517
				22:[f3<1.73449993] yes=45,no=46,missing=45
					45:leaf=0.0326283909
					46:leaf=-0.0314191878
	2:[f3<1.82249999] yes=5,no=6,missing=5
		5:[f24<1.24550009] yes=11,no=12,missing=11
			11:[f27<0.896499991] yes=23,no=24,missing=23
				23:[f10<1.11849999] yes=47,no=48,missing=47
					47:leaf=0.0056205662
					48:leaf=-0.116030924
				24:[f15<-1.65149999] yes=49,no=50,missing=49
					49:leaf=0.0658839718
					50:leaf=-0.0712264404
			12:[f13<2.25650001] yes=25,no=26,missing=25
				25:[f11<-0.952000022] yes=51,no=52,missing=51
					51:leaf=0.0494551472
					52:leaf=-0.0245165564
				26:[f22<2.49000001] yes=53,no=54,missing=53
					53:leaf=0.134807527
					54:leaf=0.00159497338
		6:[f22<0.802999973] yes=13,no=14,missing=13
			13:[f15<-0.234499991] yes=27,no=28,missing=27
				27:leaf=0.0734098703
				28:leaf=-0.0540529788
			14:[f17<0.442000002] yes=29,no=30,missing=29
				29:leaf=0.0142717352
				30:[f9<2.22250009] yes=55,no=56,missing=55
					55:leaf=-0.129831523
					56:leaf=-0.038635876
